#ifndef Conv_1_PARAMS
#define Conv_1_PARAMS

#define WEIGHT_Conv_1 {{{{-0.206317, -0.104066, 0.034829, 0.529306, -0.092513, -0.178104,   -0.015005, -0.045844},  {-0.258332, 0.278092, 0.446277, -0.455859, -0.025959, 0.752122,   -0.045191, -0.250600},  {0.352695, -0.760883, -0.226308, -0.575090, -0.430942, 0.436960,   -0.278082, -0.074033},  {-0.436387, -0.197441, 0.106291, -0.482669, -0.336330, -0.081162,   -0.113048, 0.060423},  {-0.823880, -0.142976, 0.222070, -0.763326, -0.336971, 0.132240,   0.146557, 0.203604},  {-0.277136, -0.095050, 0.422452, -0.998470, -0.194163, 0.458053,   -0.073637, 0.403000},  {-0.149168, 0.195974, 0.562864, -0.814196, 0.186341, 0.055504,   0.197619, 0.540162},  {-0.406597, -0.058339, 0.661745, -0.963643, 0.046038, 0.392407,   -0.206659, 0.293654},  {-0.054817, 0.033352, 0.445203, -1.353424, 0.304801, 0.348667,   -0.060139, 0.307476},  {-0.183142, 0.091575, 0.226736, -0.771679, 0.080529, 0.280956,   -0.246116, 0.254512},  {-0.067860, 0.080829, 0.220201, -1.048283, 0.338288, 0.411671,   -0.155363, -0.367448},  {-0.094309, 0.331598, 0.304257, -0.998958, 0.494572, 0.574582,   -0.185791, -0.465447},  {0.284774, 0.555353, 0.449936, -0.726070, 0.137284, 0.034378, 0.201224,   -0.491121},  {0.379129, 0.976340, 0.564449, -0.334002, -0.185752, -0.169733,   0.316223, 0.127536},  {0.042779, 0.442682, 0.555020, -0.324557, -0.057201, -0.443059,   0.323050, 0.361643},  {0.186479, 0.206349, 0.313087, -0.318053, -0.001748, 0.072860,   0.143581, 0.214970},  {0.184497, -0.052119, 0.295060, -0.070872, -0.018171, -0.162604,   0.366236, 0.068767},  {0.366455, -0.045987, 0.261965, -0.315539, 0.089901, 0.064966,   0.211264, -0.231463},  {0.211419, 0.075436, 0.198331, -0.206735, 0.094148, 0.063258, 0.227271,   -0.057436},  {0.142822, 0.046961, 0.077633, -0.134797, 0.187278, -0.064648,   0.333867, -0.078108},  {0.354545, -0.191718, 0.239402, -0.086040, 0.127281, -0.032019,   0.373022, -0.090725},  {0.488346, -0.050923, -0.041615, 0.000398, 0.215525, -0.008559,   0.052238, 0.158473},  {0.830278, -0.174835, 0.216762, 0.055847, 0.208576, 0.282324,   -0.166177, -0.173444},  {0.831098, -0.453981, -0.047420, 0.132379, 0.110095, 0.488349,   0.167086, 0.133076},  {0.707681, -0.481695, -0.140606, -0.069528, 0.017651, -0.176898,   0.380373, 0.182540},  {0.901900, -0.034703, -0.596145, 0.077447, 0.032466, -0.123442,   0.037057, 0.196807},  {0.720640, 0.654542, -0.469391, 0.031830, -0.344754, -0.185639,   0.031075, 0.056314},  {0.360799, 0.690781, 0.113890, 0.356461, 0.176394, -0.215819, 0.521328,   -0.077342}}, {{-0.089278, -0.087533, -0.415882, -0.026332, 0.091431, -0.118696,   -0.142174, -0.247793},  {-0.291738, 0.466994, 0.548301, -0.070816, 0.230784, 0.390268,   0.413685, -0.506389},  {-0.123913, -0.075177, 0.469469, 0.007267, -0.140899, 0.576628,   -0.432536, -0.411385},  {-0.599260, -0.225280, 0.408499, 0.016679, -0.067188, 0.197677,   0.120470, -0.112073},  {-0.387531, -0.168612, -0.068948, -0.280056, -0.106102, 0.076416,   -0.229897, -0.421617},  {0.153541, -0.152533, -0.183024, -0.602557, -0.202439, 0.272513,   0.079793, -0.341041},  {0.035763, -0.160383, -0.328429, -0.465790, -0.570087, 0.218928,   0.047914, -0.203945},  {0.119519, 0.012804, -0.227698, -0.146759, -0.362180, 0.004444,   0.177914, -0.555504},  {-0.108350, -0.076784, -0.055177, -0.406047, -0.359805, 0.300516,   0.122284, -1.323350},  {0.001325, 0.101225, -0.059886, -0.202583, -0.257995, 0.323780,   0.239343, -1.611740},  {0.053513, 0.110265, 0.016634, 0.186709, -0.316318, 0.239179, 0.318695,   -0.914315},  {0.058794, 0.354734, -0.156662, -0.045564, -0.722386, 0.125696,   0.308225, -0.185711},  {-0.103838, 0.577752, -0.072005, -0.019855, -0.740183, 0.326063,   0.063329, 0.153435},  {0.072089, 0.607767, 0.332483, -0.231804, -0.351574, 0.204129,   -0.144979, 0.428461},  {0.125077, 0.276739, 0.496487, -0.168290, -0.138456, 0.172144,   0.156534, 0.277663},  {-0.071730, -0.061873, 0.423407, -0.310577, 0.082123, 0.419818,   0.580694, -0.034809},  {-0.054613, -0.186752, 0.204388, 0.000503, 0.187713, -0.010238,   0.743808, -0.145356},  {0.183285, -0.192657, 0.169112, 0.052008, 0.216525, 0.313157, 0.346009,   0.009094},  {0.580048, -0.259629, 0.140570, 0.192049, 0.077900, 0.223167, 0.316546,   0.131856},  {0.730765, -0.538394, 0.471255, 0.050418, -0.035438, 0.247141,   0.056494, -0.269315},  {0.915452, -0.132591, 0.111771, 0.095326, 0.037141, 0.311536,   -0.104126, 0.033722},  {0.620020, -0.317733, 0.091800, 0.058557, -0.071090, 0.445861,   -0.006314, -0.310939},  {0.561320, -0.219368, 0.187959, -0.073145, -0.048349, 0.410557,   0.079511, -0.621951},  {1.046198, -0.094066, 0.149703, 0.012082, 0.030750, 0.520082,   -0.251240, -0.299640},  {1.088951, -0.100930, -0.142305, -0.119300, 0.025669, 0.255280,   0.198652, -0.181725},  {0.393017, 0.215190, -0.453074, 0.072445, -0.071774, -0.002783,   -0.231751, -0.312571},  {0.157342, 0.339702, -0.361754, -0.029695, -0.495429, -0.450944,   0.331119, -0.069441},  {0.050790, 0.221797, -0.360581, -0.368330, 0.144202, 0.180695,   -0.226443, 0.696860}}, {{0.035805, 0.240158, 0.267829, 0.034361, 0.102632, 0.193489, 0.054821,   -0.537019},  {-0.580246, 0.002872, 0.279434, -0.296568, -0.272713, 0.193175,   -0.062609, -0.318834},  {0.045287, 0.408630, 0.710070, -0.045217, 0.055145, 0.455019,   -0.052319, -0.269536},  {-0.214503, 0.410888, 0.366086, -0.099390, -0.021851, 0.154040,   -0.019207, -0.027164},  {-0.151801, 0.332817, -0.180078, 0.267330, -0.617565, 0.361343,   -0.688622, -0.907653},  {-0.290801, 0.025504, -0.213049, 0.255683, -0.591009, 0.111887,   -0.011427, -0.827372},  {0.178973, 0.137797, -0.477781, 0.326678, -0.493252, 0.258952,   -0.035619, -1.124761},  {-0.053683, 0.025771, -0.282041, 0.293405, -0.539763, -0.060662,   0.435676, -1.078476},  {-0.256622, -0.184579, -0.512395, 0.552238, -0.956819, 0.038744,   0.377813, -0.182833},  {0.070675, -0.061025, -0.648707, 0.243024, -0.813369, 0.059893,   0.556673, 0.342588},  {0.057971, 0.073836, -0.487912, 0.305509, -0.753156, -0.062843,   0.698434, 0.459888},  {0.162122, -0.004774, -0.170517, 0.095539, -0.434633, -0.218041,   0.444430, 0.448304},  {0.187544, 0.061985, -0.333955, 0.057153, -0.181345, -0.069447,   0.183223, 0.482581},  {0.099057, 0.022306, -0.187368, 0.096658, -0.109785, -0.055630,   0.082715, 0.236587},  {-0.097531, -0.061772, -0.389663, 0.066099, 0.348064, 0.076823,   0.449316, 0.201269},  {-0.235104, -0.062083, -0.073176, 0.188483, 0.561854, 0.398038,   0.163146, -0.066422},  {-0.356283, -0.121398, 0.052059, 0.172415, 0.311923, 0.824001,   -0.047458, -0.068339},  {-0.290888, -0.331238, 0.202515, 0.170246, 0.186047, 0.593057,   -0.139501, -0.184156},  {-0.140747, -0.185492, 0.081512, 0.170089, 0.161291, 0.473248,   -0.011018, -0.185901},  {0.053690, -0.289252, -0.101087, 0.054445, 0.191540, 0.430259,   -0.207154, 0.063545},  {0.021943, -0.342000, 0.128348, 0.185726, 0.060609, 0.208729,   -0.305229, -0.061433},  {0.074207, -0.274899, 0.032204, 0.043734, 0.208314, 0.139739,   -0.062818, 0.096978},  {0.263928, -0.481037, -0.204672, 0.101914, -0.084211, -0.020608,   0.044457, 0.059846},  {0.188782, -0.057181, 0.296601, 0.192822, -0.043613, -0.033047,   -0.085208, -0.202828},  {0.447298, -0.298993, -0.141398, 0.210133, 0.030678, 0.226404,   -0.111925, -0.096017},  {0.345000, 0.077000, -0.186490, 0.125454, -0.081254, -0.129682,   0.022288, -0.090383},  {0.166105, 0.568384, -0.430653, 0.280202, 0.216929, -0.263231,   0.192208, 0.021599},  {-0.227443, -0.186367, -0.195853, 0.598133, -0.143833, -0.170828,   0.059191, 0.504125}}}}
#define BIAS_Conv_1 {{0.521086, 1.231588, 0.435751, 0.613994, 0.507136, 0.171959, 0.289693, -0.167692}}
#endif
