#ifndef Conv_9_PARAMS
#define Conv_9_PARAMS

#define WEIGHT_Conv_9 {{{{0.306785, 0.203053, 0.638333, ..., -0.295579, -0.121591, -0.295687},  {-0.048870, 0.393670, 0.100939, ..., -0.636180, -0.394078, 0.207737},  {0.330685, 0.570916, -0.100000, ..., -0.365163, -0.571494, -0.149572},  ...,  {0.459706, 0.197387, -0.269278, ..., -0.224684, -0.281606, -0.056978},  {0.170905, 0.044190, -0.253850, ..., -0.040314, -0.582420, -0.294819},  {-0.768362, -0.080147, 0.280888, ..., 0.145489, -0.356769, -1.121423}}, {{-0.089379, 0.353282, -0.654973, ..., 0.350693, -0.069661, 0.081665},  {0.167244, -0.186634, -0.682710, ..., -0.524407, 0.097314, -0.363018},  {0.346201, 0.079091, -1.011322, ..., -0.064203, -0.134795, -0.060566},  ...,  {0.276697, 0.294432, -0.157979, ..., 0.148412, -0.084838, -0.222110},  {-0.529390, 0.085251, 0.174829, ..., 0.313410, -0.194554, -0.261469},  {-0.406679, 0.339543, 0.447712, ..., 0.050998, -0.259582, -0.570284}}, {{0.348900, -0.584396, -0.353793, ..., -0.074859, 0.151591, -0.144490},  {-0.064697, 0.256192, 0.207991, ..., 0.760133, 0.030871, -0.335987},  {0.171079, 0.474379, -0.248032, ..., 0.131679, -0.052605, -0.262117},  ...,  {-0.202632, -0.609902, 0.075379, ..., 0.441743, -0.780711, -0.180660},  {0.115310, 0.196340, 0.444878, ..., 0.615081, -0.311930, -0.057729},  {-0.230296, -0.617232, -0.041783, ..., -0.825169, 0.226048, 0.139551}}}}
#define BIAS_Conv_9 {{-0.253835, 0.174300, -0.682135, 0.002927, -0.045143, -0.061959, -0.194378, -0.731758, 0.328261, -0.714733, -1.125653, -0.094621, -0.067955, -0.188424, -0.342338, -0.173300, 0.338645, 0.178669, -0.393168, 0.002089, 0.056793, -0.944544, 0.160350, -0.234958, -0.129739, -0.578433, -0.548017, 0.119306, -0.033885, -0.666384, -0.091369, -0.066823}}
#endif
