#ifndef Conv_5_PARAMS
#define Conv_5_PARAMS

#define WEIGHT_Conv_5 {{{{-0.439154, -0.586482, -0.503410, 0.280373, -0.036700, -0.169350,   0.533853, -0.040443, 0.706868, -0.207692, -0.466992, -1.258037,   0.695123, -0.046077, 0.016302, 0.554843},  {0.310382, -0.307275, 0.181131, -0.158792, 0.798082, -0.265349,   -0.063105, 0.804152, -0.309890, -0.269087, 0.097901, 0.324070,   -0.322371, -0.891924, 0.110758, 0.617392},  {-1.644128, -0.801177, 0.676373, 0.188805, 0.715614, 0.289134,   0.332261, -0.066487, 0.028766, -0.086257, 0.601799, -0.057294,   -0.050569, -0.330002, -0.030864, 0.554701},  {0.311682, -0.051076, 0.653049, -0.323268, -0.096988, -0.238680,   0.565639, 0.071969, -0.009668, -0.063318, 0.066063, 0.211556,   0.118219, -0.132088, -0.322240, -0.564612},  {-0.433456, 0.476669, 1.101217, -0.070088, 0.311333, 0.211081,   0.186630, -0.205329, -0.301363, -0.085865, -0.400845, 0.130542,   -0.003248, -0.565006, 0.450917, 0.226385},  {-0.874545, -0.234775, 0.055869, -0.921198, -0.098160, 0.326943,   -0.669275, 0.055210, -0.038843, 0.310670, 0.706325, -0.554533,   0.919683, -0.004329, -0.211941, 0.182499},  {-0.471116, -0.977720, -0.555721, 0.128151, 0.199341, -0.691240,   -1.008318, 0.868611, 0.049364, 0.063817, 0.825162, 0.303613, 0.164814,   -0.168170, 0.269128, 0.307029},  {0.055028, -0.018944, 0.071210, 0.994094, -0.307605, -0.876496,   0.176998, 0.616947, 0.337821, -0.237233, 0.071706, 0.131221, 0.069432,   -0.502091, 0.036087, -0.320208}}, {{-0.800742, -0.368298, -0.170608, 0.066366, -0.181170, -0.189054,   -0.183247, -0.269193, 0.308570, -0.453467, -0.059726, 0.329004,   0.324760, 0.058617, 0.067805, 0.319993},  {0.694179, 0.099849, -0.204567, 0.340714, 0.477829, -0.998488,   0.273652, -0.393450, -0.470284, -1.057441, -0.185956, 0.307185,   -0.001353, 0.572894, 0.696325, -0.223942},  {-0.201498, -0.922860, 0.012165, -0.073763, -0.319294, -0.275570,   0.652356, 0.193097, -0.026337, -0.416440, 0.689845, 0.090116,   0.289433, 0.063742, 0.973513, 0.251627},  {0.262669, -0.192693, 0.557318, -0.740387, -0.244337, -0.144995,   0.339892, -0.196400, -0.182493, 0.478978, -0.049477, 0.734514,   0.167604, -0.206346, -0.608915, -1.125307},  {0.296682, 0.091479, -0.225806, -0.151644, 0.709408, -0.298000,   0.642516, -1.010563, -0.116279, 0.681387, -0.679928, 0.314740,   0.188740, 0.317443, 0.055304, -0.051367},  {0.894375, -0.460363, -0.208936, 0.280698, -0.302417, 0.863944,   0.342752, 0.147635, 0.301140, 0.188642, 0.506649, -0.220427,   -0.638779, 0.072825, 0.297796, -0.175705},  {-0.146448, -1.114416, 0.788479, 0.319670, -0.383883, -0.169884,   -0.067518, -0.575298, -0.633895, -0.287662, -0.071603, -0.151406,   0.789891, 1.086464, -0.183951, 0.133443},  {0.178304, 0.138118, 0.304945, -0.375039, 0.931798, -0.623613,   0.542548, -0.387196, -0.107407, 0.608714, 0.040639, -0.064334,   0.065566, 0.063747, -0.245650, 0.252474}}, {{0.049021, 0.084739, 0.003579, -0.456201, 0.005549, -0.836359,   0.377153, 0.131441, -0.032222, -0.284202, -0.098168, 1.599656,   -1.784737, -0.356801, 0.059307, 0.444976},  {-0.091590, -0.110438, 0.064928, -0.443580, 0.110629, -0.103418,   0.085786, -0.557494, -1.447193, 0.180022, -1.004796, 0.184580,   0.228138, 0.818199, -0.295832, -0.002935},  {0.403325, -0.565119, 0.607972, -0.308188, -1.009304, 0.305377,   0.905567, 0.170754, -0.030403, 0.059864, -0.002911, -0.098249,   -0.584022, 0.439967, 0.048883, 0.734068},  {-0.217612, -0.054706, -0.487259, 0.453120, -0.332987, -0.396978,   -0.301610, -0.301157, 0.097989, 0.313099, 0.178661, 0.032345,   -0.444240, 0.052340, 1.164549, -0.469546},  {0.090565, 0.110877, -0.386113, 0.552526, 0.334009, 0.204575, 0.439999,   -0.133437, 0.726834, 0.781151, 0.696784, -0.324651, -0.184179,   0.148678, 0.584481, 0.144067},  {0.305126, -0.209075, 0.454539, 0.331648, 0.117802, 0.561828,   -0.345745, -0.074485, 0.360295, 0.187009, -0.063903, -0.284472,   -0.745347, 0.015962, -0.832015, 0.565108},  {0.490923, -0.440419, -0.435435, 0.043125, 0.308566, 0.418867,   0.559918, -0.365831, -0.569752, -0.038024, -0.548037, 0.472468,   -0.455207, 0.193819, -0.998482, 0.496934},  {-0.047985, 0.348713, -1.031567, 0.224399, 0.416014, -0.637803,   -0.084264, -0.771767, -0.166619, 0.859702, 0.805976, 0.023782,   -0.060748, -0.178238, -0.256725, -0.116187}}}}
#define BIAS_Conv_5 {{0.018714, 0.468836, 0.078023, 0.570623, -0.469046, -0.124674, -0.345652, -0.050969, -0.004009, -0.294722, -0.417312, -0.385622, -0.006248, 0.262822, 0.133511, 0.399295}}
#endif
