#ifndef Dense_14_PARAMS
#define Dense_14_PARAMS

#define WEIGHT_Dense_14 {{{-0.456078, 0.311929, -0.783903, 0.200158, -0.779857, 0.563986, 0.249142,  0.324548, 0.052134, 0.285022}, {-0.517875, -0.024952, 0.954842, 0.315982, 0.450626, -0.541105,  -1.122990, 0.024467, -0.028038, -0.173585}, {0.803755, -0.281690, -0.187656, -0.791087, -0.439505, -0.599613,  0.867005, -0.466160, 0.463469, -0.430612}, {-0.149149, -1.138160, -0.150187, 0.024765, 0.455856, 0.486176, 0.211842,  -1.902586, -0.069380, 0.095140}, {0.672029, -0.153706, -0.602919, -0.485211, 0.565046, -0.585905,  0.401742, -0.069899, -0.416394, -0.825827}, {0.726535, -0.185650, -0.069658, 0.080457, -1.458379, 0.452096,  -1.014372, 0.355940, -0.287142, 0.087305}, {-0.384848, -1.351660, -0.072730, -0.164431, 1.396687, -0.465443,  -0.631397, 0.687733, -0.912611, 0.804336}, {-0.085171, -0.407029, 0.527504, -0.851202, 0.691230, -0.565912,  -0.258520, 0.538466, 0.541813, -0.180033}, {0.108928, -0.000173, 0.304162, -1.344299, 0.607763, 0.141791, 0.545152,  -0.683332, 0.751575, 0.385068}, {0.042842, -0.103188, -1.033713, 0.174107, 0.316740, -0.056959,  -1.809376, -0.091087, -0.140586, 0.411413}, {0.422562, -1.053182, 0.555528, 0.164987, -0.702432, 0.270947, 0.553577,  -1.066899, 0.574487, -0.526509}, {1.073010, 0.706852, 0.156803, 0.430103, 0.110670, 0.429042, 0.383368,  0.940397, -0.796132, -0.674956}, {-0.079318, 0.004974, 0.190375, -0.610965, 0.113983, 0.572811, 0.592467,  -0.183268, -0.752135, -0.919853}, {-0.360249, -0.943230, 0.213762, 0.837562, -1.359536, -0.158982,  -0.387304, -0.380073, 0.494215, 0.036680}, {0.724415, 0.604402, -0.525589, -0.618261, -0.843771, -0.430055,  -0.037920, 0.824798, -0.183881, -0.185205}, {-0.494046, -1.093582, -0.412912, 0.553844, 0.023831, 0.099921,  -0.229970, -1.200416, 0.821049, 0.632132}, {0.574868, -1.863127, 0.602312, -0.237343, -0.189188, 0.209692,  -0.373695, 0.511340, -0.265786, 0.297781}, {-0.598935, -0.689226, 0.283950, 0.629623, -0.281318, -0.112810,  0.313889, 0.285369, -0.079184, 0.547850}, {0.568748, -0.317500, 0.872873, -0.298336, 0.063169, -1.464077,  -2.078662, 0.077389, -0.347366, 0.196350}, {0.311902, -0.210008, -0.904649, -0.246411, -0.054558, 0.005508,  0.392112, -0.999961, -0.612586, 1.130203}, {0.162483, -0.956676, -0.457868, 0.691008, -0.697459, 0.698171,  -0.300255, -0.505437, 0.227284, -0.556628}, {-0.305166, -0.443076, -0.704907, -0.446004, -0.381738, 0.579422,  -0.849288, 0.311629, 0.844835, 0.028108}, {-0.236183, 0.779270, -0.449987, -0.552424, 0.065796, 0.840575,  -0.253628, -0.334203, -0.396349, -0.200979}, {0.814786, -0.508581, 0.304678, 0.446058, -1.573411, 0.553102, -0.172691,  0.111597, -0.336677, -0.211052}, {-0.145823, -0.907470, 0.553109, -1.058138, 0.193720, 0.005110, 0.343139,  -0.544621, 0.199870, 0.673741}, {-0.238224, 0.017996, -0.224472, -0.039080, 0.284688, -1.044928,  -1.206629, 0.455825, 0.841120, -0.178082}, {-0.183197, 0.042611, 0.556791, -0.762572, 0.981614, -0.171380, 0.325151,  0.712475, -1.137722, 0.399235}, {0.078549, -0.525965, -1.223200, 0.327088, 0.805856, -0.164237, 0.268230,  0.465823, -0.403182, 1.147560}, {-1.413790, 0.773706, 0.010577, 0.207851, 0.176458, 0.645672, -0.515757,  0.216858, 0.109533, -0.202573}, {0.512390, 1.319717, 0.385408, -0.321225, -0.076206, -0.522040,  -0.027674, -1.243789, 0.051309, -1.081331}, {0.508641, -0.289424, -0.522070, -0.168046, 0.061002, 0.453294, 0.783527,  0.478489, -0.274411, -0.420866}, {-0.606076, 0.571105, 0.502180, 0.428495, -0.578191, -0.856107, 0.109944,  0.305867, -0.440934, -0.364665}}}
#define BIAS_Dense_14 {{-0.344624, 0.142232, -0.047986, 0.004896, 0.075457, 0.061171, 0.026527, -0.057079, 0.206679, -0.062274}}
#endif
